//Numpy array shape [98, 20]
//Min -0.875000000000
//Max 0.875000000000
//Number of zeros 872

#ifndef W2_H_
#define W2_H_

#ifndef __SYNTHESIS__
weight2_t w2[1960];
#else
weight2_t w2[1960] = {0.125, 0.000, 0.000, 0.000, -0.125, 0.125, 0.125, 0.125, 0.000, -0.125, -0.250, -0.125, -0.125, 0.000, -0.125, -0.250, -0.250, -0.125, -0.250, 0.000, 0.000, 0.000, 0.000, -0.375, 0.375, -0.125, -0.125, -0.125, 0.000, 0.000, -0.250, -0.250, -0.125, -0.125, -0.125, 0.000, 0.000, 0.000, -0.125, 0.125, 0.000, 0.000, 0.125, 0.000, 0.000, 0.125, -0.125, 0.000, 0.000, 0.000, 0.000, 0.125, 0.125, 0.125, 0.000, -0.125, 0.000, 0.000, -0.125, 0.125, 0.125, 0.125, 0.125, 0.125, 0.125, 0.250, 0.250, 0.125, 0.125, -0.125, -0.125, -0.125, 0.500, -0.875, 0.375, -0.125, 0.250, 0.000, 0.000, 0.375, 0.250, 0.125, 0.250, 0.125, 0.000, -0.125, 0.125, 0.250, 0.250, -0.125, 0.000, 0.000, -0.125, 0.000, 0.000, 0.000, 0.125, 0.125, 0.000, 0.000, 0.125, 0.000, 0.000, 0.000, 0.000, -0.125, 0.000, 0.375, 0.000, 0.000, 0.000, -0.125, 0.000, 0.125, 0.125, 0.250, 0.000, 0.125, -0.125, 0.125, 0.125, 0.500, -0.250, 0.250, 0.250, 0.250, 0.125, 0.125, 0.000, 0.125, 0.000, 0.000, -0.125, 0.000, 0.250, 0.000, 0.000, 0.000, -0.250, 0.000, 0.000, 0.000, 0.000, 0.250, 0.000, 0.000, 0.000, 0.000, 0.000, -0.125, 0.000, 0.000, 0.000, 0.000, 0.125, 0.000, -0.250, 0.000, 0.000, 0.125, 0.000, 0.000, 0.000, 0.000, 0.000, 0.000, 0.000, 0.000, 0.000, 0.000, -0.125, 0.125, -0.125, 0.000, 0.000, -0.125, 0.000, 0.000, 0.000, 0.000, 0.125, 0.000, 0.000, -0.125, 0.000, 0.000, 0.000, 0.125, 0.000, 0.000, 0.000, 0.000, -0.250, 0.125, 0.000, 0.000, 0.000, -0.250, -0.125, 0.250, -0.250, -0.250, 0.000, 0.000, 0.000, 0.000, 0.000, 0.000, 0.000, 0.000, 0.000, 0.000, 0.000, 0.000, 0.250, 0.000, 0.000, 0.000, 0.000, 0.500, 0.000, 0.500, 0.125, 0.000, 0.000, 0.250, 0.000, 0.000, 0.000, 0.000, 0.000, 0.000, 0.125, -0.250, -0.250, -0.125, 0.000, 0.000, 0.125, 0.000, 0.000, -0.250, 0.000, -0.125, 0.125, 0.000, 0.000, 0.000, -0.125, 0.000, 0.250, 0.000, 0.000, 0.000, 0.000, -0.125, 0.125, 0.125, 0.125, 0.125, 0.000, 0.000, 0.000, 0.125, 0.000, 0.000, 0.000, 0.000, 0.000, -0.250, 0.000, 0.250, 0.000, 0.000, 0.000, 0.000, 0.000, 0.000, 0.000, 0.000, 0.000, 0.000, 0.000, 0.000, 0.125, 0.250, 0.000, 0.000, -0.125, 0.000, 0.000, 0.000, 0.250, 0.000, -0.125, 0.125, -0.250, -0.125, 0.000, 0.000, -0.125, -0.125, -0.125, 0.000, -0.250, 0.000, 0.000, 0.125, -0.250, -0.125, -0.250, -0.250, 0.000, -0.250, 0.000, 0.125, 0.250, 0.250, -0.125, 0.250, 0.125, 0.125, 0.125, 0.000, 0.000, 0.500, 0.250, 0.125, 0.250, 0.125, -0.125, 0.250, 0.000, 0.000, 0.000, -0.125, 0.000, 0.000, 0.000, 0.000, 0.000, 0.000, -0.125, -0.125, -0.250, -0.125, -0.250, -0.125, -0.125, -0.125, -0.250, 0.000, -0.250, -0.125, -0.250, -0.250, -0.250, 0.000, 0.000, 0.000, -0.125, 0.000, 0.125, -0.125, 0.000, 0.250, 0.250, 0.000, 0.000, 0.250, 0.000, 0.000, 0.125, 0.125, -0.125, 0.000, 0.250, 0.000, -0.125, 0.000, -0.125, 0.000, 0.000, 0.000, 0.250, 0.000, 0.000, 0.000, 0.000, 0.000, -0.125, -0.125, 0.000, 0.125, 0.250, 0.000, 0.250, 0.250, 0.500, 0.000, 0.375, 0.125, -0.250, 0.250, 0.375, 0.250, 0.250, 0.125, 0.250, 0.250, 0.375, 0.125, 0.375, 0.250, 0.125, 0.250, 0.500, 0.125, 0.000, 0.250, 0.000, 0.000, 0.250, 0.250, 0.500, 0.125, 0.125, 0.125, 0.000, 0.000, 0.000, 0.250, 0.250, 0.000, 0.000, 0.000, -0.125, 0.250, 0.250, 0.250, 0.000, 0.000, -0.125, 0.000, 0.000, 0.125, 0.125, 0.000, 0.000, 0.000, 0.125, 0.000, 0.125, -0.250, 0.000, -0.250, 0.000, 0.000, 0.000, -0.250, -0.250, 0.250, 0.000, 0.250, 0.000, -0.250, 0.250, -0.125, 0.000, 0.125, 0.250, 0.125, -0.125, 0.250, 0.125, -0.125, -0.125, -0.250, 0.000, -0.125, -0.250, -0.250, 0.000, 0.000, 0.125, 0.000, -0.125, 0.000, -0.250, 0.000, 0.000, 0.125, 0.125, 0.000, 0.000, 0.125, 0.125, 0.000, -0.125, 0.000, 0.250, 0.000, 0.000, 0.000, 0.125, 0.000, 0.250, 0.375, 0.125, 0.000, 0.125, 0.000, -0.250, 0.125, -0.375, 0.000, 0.000, 0.000, 0.000, 0.000, 0.000, 0.250, 0.000, 0.000, 0.125, 0.000, 0.000, 0.000, 0.000, 0.250, 0.000, 0.000, -0.125, 0.125, 0.000, 0.125, 0.000, 0.125, 0.000, 0.000, 0.000, 0.000, 0.250, 0.000, 0.000, 0.000, 0.125, 0.125, 0.000, 0.000, 0.125, 0.000, 0.000, 0.125, 0.000, 0.000, 0.000, 0.000, 0.000, -0.250, -0.125, -0.125, -0.250, 0.000, -0.125, -0.250, -0.250, 0.000, -0.125, 0.000, 0.000, 0.000, 0.000, 0.000, 0.000, 0.125, 0.000, 0.125, 0.000, 0.000, 0.000, 0.000, 0.000, 0.000, 0.000, 0.000, 0.000, 0.000, 0.125, 0.000, 0.000, -0.125, 0.125, 0.000, 0.125, 0.000, 0.000, -0.125, 0.000, -0.125, 0.125, 0.125, -0.125, 0.000, -0.250, -0.375, -0.250, 0.000, 0.000, -0.125, -0.125, -0.250, 0.375, -0.125, -0.125, 0.000, 0.000, 0.000, -0.125, -0.250, -0.125, -0.125, 0.000, -0.125, 0.000, 0.000, -0.125, 0.000, 0.000, -0.125, 0.125, -0.125, -0.125, 0.000, 0.125, -0.125, 0.125, -0.125, 0.125, 0.125, 0.125, 0.000, 0.000, 0.000, -0.125, 0.000, 0.125, 0.125, 0.125, 0.125, 0.000, 0.250, 0.125, 0.250, 0.250, 0.250, 0.000, 0.125, 0.250, 0.000, 0.250, -0.875, 0.125, 0.250, 0.000, 0.000, 0.125, 0.375, 0.375, 0.250, 0.125, 0.000, 0.000, 0.000, 0.000, 0.000, -0.125, 0.125, 0.000, 0.000, 0.000, 0.000, 0.125, 0.250, 0.125, 0.000, 0.000, 0.250, -0.125, -0.125, -0.125, 0.250, 0.250, -0.125, 0.000, 0.125, -0.375, -0.250, -0.125, -0.250, 0.125, -0.250, -0.250, 0.000, 0.125, 0.000, -0.125, -0.250, 0.250, -0.500, 0.625, 0.000, 0.000, -0.125, 0.250, 0.000, -0.250, -0.125, 0.000, 0.000, -0.250, 0.000, 0.000, 0.000, -0.125, -0.125, -0.125, 0.125, -0.125, -0.125, 0.000, -0.125, 0.000, -0.125, -0.125, -0.125, 0.125, 0.125, 0.125, 0.000, 0.250, 0.250, 0.000, 0.125, 0.125, -0.125, -0.125, 0.000, -0.250, 0.125, 0.000, -0.250, 0.375, 0.375, -0.375, 0.000, -0.125, 0.125, 0.125, -0.375, 0.250, 0.000, -0.250, 0.125, 0.125, -0.375, 0.375, 0.250, 0.125, 0.125, 0.125, 0.000, 0.125, 0.000, 0.250, 0.000, -0.125, 0.000, 0.000, 0.125, 0.000, 0.000, 0.000, -0.125, 0.000, -0.250, 0.000, 0.000, 0.125, -0.125, 0.000, 0.000, 0.125, 0.125, -0.125, 0.000, -0.125, 0.000, 0.000, 0.000, 0.000, -0.125, -0.125, 0.000, 0.000, 0.000, 0.000, -0.125, 0.750, -0.125, -0.125, 0.000, 0.125, 0.000, 0.000, 0.000, -0.125, 0.000, 0.125, 0.125, 0.125, 0.000, -0.125, 0.000, 0.000, 0.000, 0.000, 0.000, 0.000, 0.000, 0.000, -0.125, 0.125, -0.125, 0.125, 0.125, -0.125, 0.000, 0.125, 0.000, 0.000, -0.125, -0.125, -0.250, -0.250, -0.125, 0.000, -0.125, -0.250, 0.000, 0.000, 0.125, -0.375, 0.000, 0.125, -0.250, -0.125, 0.500, 0.000, -0.125, -0.125, 0.000, -0.375, 0.000, 0.250, -0.375, 0.125, 0.125, 0.000, 0.125, -0.375, 0.125, -0.125, -0.125, 0.125, 0.000, 0.000, -0.250, -0.375, 0.125, -0.250, 0.000, 0.125, 0.250, 0.000, 0.000, -0.125, 0.125, 0.000, 0.000, -0.250, 0.000, 0.000, 0.000, 0.000, 0.000, -0.125, 0.250, 0.000, -0.125, -0.125, 0.000, -0.250, -0.125, -0.125, 0.250, 0.500, 0.125, 0.125, -0.250, 0.000, 0.000, 0.000, 0.000, 0.125, -0.125, 0.125, 0.000, -0.125, 0.000, 0.000, -0.250, -0.250, 0.250, 0.250, 0.000, 0.125, 0.000, 0.125, 0.125, -0.125, 0.000, 0.000, 0.000, 0.000, 0.000, 0.000, -0.250, -0.250, -0.250, -0.250, -0.125, 0.000, 0.250, 0.250, 0.250, 0.250, -0.250, -0.250, -0.250, 0.250, -0.250, -0.250, -0.125, 0.000, 0.500, -0.250, 0.250, -0.125, 0.000, -0.125, -0.125, -0.375, 0.000, -0.250, -0.250, 0.000, -0.125, 0.000, -0.125, -0.250, -0.125, 0.250, -0.125, 0.125, 0.000, -0.250, 0.250, -0.125, 0.250, 0.000, 0.000, 0.000, 0.000, 0.000, 0.000, 0.000, 0.000, 0.000, -0.250, -0.125, -0.125, 0.000, 0.000, -0.125, -0.125, -0.250, -0.250, 0.000, -0.125, 0.000, -0.125, -0.125, -0.250, -0.250, -0.125, -0.125, -0.250, -0.125, 0.000, 0.000, 0.000, 0.000, 0.000, 0.000, 0.000, -0.125, -0.125, -0.125, -0.125, 0.000, 0.000, -0.125, 0.000, 0.000, 0.000, 0.000, 0.000, 0.000, -0.125, 0.000, 0.000, 0.125, 0.000, 0.000, 0.000, 0.000, 0.000, 0.125, 0.125, 0.125, 0.000, 0.000, 0.125, 0.125, 0.375, 0.500, 0.125, 0.250, 0.000, 0.250, 0.250, 0.375, 0.750, 0.250, 0.250, 0.250, 0.125, 0.000, 0.000, 0.125, 0.000, 0.000, 0.000, -0.125, 0.000, 0.125, 0.250, 0.125, 0.000, 0.000, 0.000, 0.000, 0.000, 0.000, 0.000, -0.125, 0.000, 0.000, -0.125, 0.125, 0.250, 0.125, 0.125, -0.125, 0.000, 0.125, 0.125, 0.250, 0.125, -0.125, 0.000, 0.000, 0.125, 0.000, 0.375, 0.125, -0.125, 0.000, 0.000, 0.125, 0.125, -0.625, 0.125, 0.000, -0.125, 0.000, 0.000, 0.125, 0.375, 0.000, 0.000, 0.125, -0.125, 0.000, -0.125, 0.125, 0.000, 0.000, 0.125, 0.000, -0.125, 0.125, -0.125, 0.000, 0.000, 0.000, 0.125, 0.125, 0.000, -0.125, 0.000, 0.000, 0.125, 0.000, -0.125, 0.000, -0.125, 0.000, 0.000, 0.000, 0.000, -0.125, -0.125, -0.250, -0.125, 0.000, 0.000, 0.000, 0.000, -0.250, -0.750, -0.250, 0.000, 0.125, 0.125, 0.000, -0.125, -0.375, -0.125, 0.000, 0.000, 0.000, 0.125, 0.000, -0.250, -0.125, -0.125, -0.125, 0.000, 0.125, -0.125, 0.125, -0.125, 0.000, 0.000, 0.000, 0.000, 0.000, 0.125, 0.250, 0.000, 0.125, 0.125, 0.250, 0.125, 0.250, 0.125, 0.000, 0.125, 0.125, 0.250, 0.125, 0.375, 0.250, 0.000, 0.000, 0.250, 0.375, 0.125, -0.375, 0.250, 0.125, 0.125, 0.000, 0.125, 0.250, 0.250, 0.250, 0.000, 0.125, 0.125, 0.125, 0.125, 0.375, 0.125, 0.000, 0.125, 0.000, 0.000, 0.125, 0.125, 0.125, 0.000, 0.000, 0.000, 0.000, 0.000, 0.000, -0.125, 0.000, -0.125, -0.125, -0.125, -0.125, -0.250, -0.125, -0.125, -0.125, 0.000, -0.125, -0.125, -0.375, -0.125, 0.000, 0.000, -0.250, -0.250, -0.125, 0.875, -0.375, 0.000, -0.125, -0.125, 0.000, -0.250, -0.250, -0.250, 0.000, -0.125, -0.125, -0.125, -0.250, -0.250, -0.250, 0.000, 0.000, 0.000, 0.000, 0.000, -0.250, -0.125, -0.125, 0.000, -0.125, 0.000, 0.000, -0.125, -0.125, 0.000, 0.000, 0.125, 0.000, 0.125, 0.000, 0.125, 0.000, 0.000, 0.000, 0.000, 0.000, -0.125, 0.000, 0.000, 0.000, 0.000, 0.000, 0.000, 0.625, 0.000, -0.125, -0.125, 0.000, 0.125, 0.000, 0.000, -0.125, 0.000, 0.000, -0.125, 0.000, 0.000, 0.000, 0.000, 0.000, 0.000, 0.000, 0.000, 0.125, 0.000, 0.000, 0.000, -0.125, 0.125, -0.125, 0.000, 0.000, 0.125, -0.125, 0.000, 0.000, -0.125, -0.250, 0.000, -0.250, 0.000, 0.125, -0.125, -0.125, -0.125, -0.375, -0.125, 0.000, -0.125, 0.125, -0.125, -0.750, 0.750, 0.000, -0.125, 0.000, 0.000, 0.000, -0.375, -0.250, -0.250, -0.125, 0.000, 0.125, 0.000, 0.000, -0.375, 0.000, 0.125, -0.125, 0.125, -0.250, 0.000, 0.000, 0.000, 0.000, 0.125, 0.000, 0.000, 0.000, 0.000, 0.000, 0.000, 0.000, 0.000, 0.250, -0.250, 0.375, 0.125, 0.000, 0.000, 0.000, 0.250, 0.250, 0.375, 0.000, 0.125, 0.250, 0.000, 0.375, 0.250, -0.250, 0.250, 0.125, 0.250, 0.000, -0.125, 0.250, 0.250, 0.000, 0.000, -0.125, 0.125, 0.000, 0.250, 0.250, 0.000, 0.000, -0.125, 0.250, 0.000, 0.250, 0.250, -0.250, -0.125, 0.000, 0.000, 0.000, 0.000, -0.125, 0.000, -0.125, 0.000, -0.250, -0.250, 0.250, -0.125, 0.000, 0.000, 0.000, 0.000, -0.125, 0.000, -0.125, 0.000, 0.000, 0.000, 0.000, 0.000, 0.000, 0.250, -0.125, 0.000, 0.000, 0.250, 0.000, -0.250, 0.000, 0.000, 0.000, 0.000, 0.000, 0.000, -0.125, -0.125, 0.000, -0.250, 0.000, 0.000, 0.000, 0.000, 0.000, 0.000, 0.000, 0.000, -0.125, 0.125, 0.000, 0.125, -0.125, 0.125, 0.125, -0.125, 0.375, 0.125, 0.375, 0.125, 0.125, 0.375, 0.125, 0.250, 0.125, 0.375, 0.375, 0.250, 0.375, 0.250, 0.250, 0.125, 0.500, 0.375, 0.125, 0.375, 0.125, 0.000, 0.250, 0.125, 0.625, 0.375, 0.250, 0.000, 0.000, 0.125, 0.125, 0.250, -0.250, 0.250, 0.250, 0.375, 0.000, 0.000, 0.000, 0.375, 0.000, -0.250, -0.125, 0.125, 0.125, -0.125, 0.250, 0.000, 0.000, 0.000, 0.250, 0.125, 0.000, 0.125, -0.125, 0.000, 0.000, 0.000, 0.375, 0.000, -0.125, 0.125, 0.000, 0.000, 0.125, -0.125, 0.125, -0.125, 0.125, -0.125, -0.250, 0.125, 0.125, 0.000, 0.000, 0.125, 0.125, 0.000, 0.000, -0.125, 0.000, 0.000, 0.000, 0.000, 0.125, 0.125, -0.125, -0.250, -0.375, 0.125, -0.125, 0.000, 0.000, 0.000, 0.000, 0.000, 0.000, 0.000, 0.000, 0.000, 0.000, 0.000, 0.000, 0.000, 0.000, 0.000, 0.000, 0.000, 0.125, 0.000, 0.000, 0.000, 0.000, 0.000, 0.375, 0.000, 0.125, 0.000, 0.000, 0.000, 0.125, 0.000, 0.000, 0.000, 0.000, 0.000, -0.125, 0.000, 0.000, 0.000, 0.000, -0.125, 0.000, 0.000, 0.000, 0.000, 0.000, 0.000, 0.125, 0.125, 0.000, -0.125, 0.000, -0.250, -0.125, 0.125, 0.000, 0.000, 0.000, -0.125, 0.250, 0.125, -0.125, 0.000, -0.125, -0.375, -0.625, -0.250, 0.000, -0.125, -0.125, -0.125, -0.250, 0.875, -0.250, -0.125, 0.000, 0.125, -0.250, 0.000, -0.625, 0.000, 0.000, -0.125, 0.000, 0.000, -0.125, 0.000, 0.000, -0.125, 0.000, 0.000, 0.000, 0.000, 0.000, -0.125, 0.000, 0.000, 0.000, -0.125, 0.000, 0.125, -0.125, -0.125, 0.000, 0.000, 0.000, 0.000, 0.000, 0.000, -0.125, -0.125, 0.000, 0.000, -0.125, -0.500, 0.000, 0.000, 0.000, 0.000, -0.125, -0.125, 0.625, -0.500, 0.000, -0.125, 0.125, 0.000, 0.000, -0.375, -0.125, -0.125, 0.000, 0.250, 0.000, -0.125, 0.000, -0.125, 0.000, 0.000, 0.000, 0.000, 0.000, -0.125, -0.125, 0.000, 0.000, 0.125, 0.000, -0.125, 0.125, 0.125, -0.125, 0.250, 0.000, 0.250, 0.125, 0.250, 0.125, 0.000, 0.000, 0.125, -0.250, 0.250, 0.000, 0.250, 0.125, 0.000, -0.125, 0.250, 0.125, -0.875, 0.000, 0.375, 0.000, 0.000, 0.000, 0.250, 0.250, 0.250, 0.125, 0.125, -0.125, 0.000, 0.125, 0.250, 0.125, 0.000, 0.125, 0.125, 0.000, 0.000, -0.125, 0.125, 0.125, 0.000, 0.000, 0.000, 0.000, -0.125, -0.250, 0.000, 0.125, 0.000, 0.000, -0.125, 0.125, 0.000, 0.000, 0.000, 0.125, 0.125, 0.125, 0.250, 0.125, 0.000, 0.000, 0.000, 0.000, 0.125, 0.000, 0.000, 0.000, 0.000, 0.000, -0.125, 0.250, 0.250, 0.125, 0.000, 0.125, -0.125, 0.000, 0.000, 0.125, 0.000, 0.000, 0.125, 0.125, 0.000, -0.125, 0.000, 0.000, 0.000, -0.125, 0.000, -0.125, 0.000, -0.125, 0.000, 0.000, 0.000, -0.250, -0.375, -0.125, -0.375, -0.125, -0.125, 0.000, -0.250, -0.375, -0.500, -0.750, -0.375, -0.250, -0.125, -0.125, -0.250, -0.500, -0.875, -0.375, -0.125, -0.125, 0.000, -0.250, -0.500, -0.750, -0.375, -0.250, -0.250, 0.125, -0.125, -0.250, -0.375, -0.250, -0.125, 0.000, 0.000, 0.000, 0.000, -0.125, -0.125, 0.000, -0.125, 0.125, -0.125, -0.125, 0.000, 0.125, -0.125, -0.125, -0.125, 0.000, 0.000, -0.125, 0.125, 0.000, 0.000, 0.125, 0.000, 0.000, 0.000, 0.000, -0.125, -0.125, -0.125, 0.000, -0.125, 0.375, 0.000, 0.125, 0.125, 0.125, -0.125, 0.000, -0.125, 0.125, 0.125, 0.000, 0.125, 0.000, 0.125, 0.000, 0.125, 0.125, -0.125, -0.125, 0.125, -0.125, 0.125, -0.125, 0.125, -0.125, 0.000, 0.000, -0.125, -0.125, 0.000, 0.125, 0.250, 0.000, 0.000, -0.250, -0.375, -0.250, 0.000, -0.250, 0.000, -0.125, -0.125, 0.000, -0.250, 0.125, 0.000, -0.250, 0.000, -0.250, 0.750, -0.875, 0.000, 0.125, 0.000, 0.125, -0.250, -0.500, -0.125, 0.000, 0.000, -0.250, -0.125, 0.125, -0.125, -0.125, 0.125, 0.000, 0.125, 0.000, 0.000, 0.000, 0.125, 0.000, 0.000};
#endif

#endif
