//Numpy array shape [98, 10]
//Min -0.625000000000
//Max 0.750000000000
//Number of zeros 391

#ifndef W3_H_
#define W3_H_

#ifndef __SYNTHESIS__
weight3_t w3[980];
#else
weight3_t w3[980] = {0.125, 0.125, 0.000, 0.000, 0.000, 0.000, 0.000, -0.250, 0.000, 0.125, 0.000, -0.125, -0.125, 0.125, 0.000, -0.125, -0.125, 0.000, 0.250, 0.125, 0.250, 0.000, 0.000, -0.250, 0.125, 0.000, 0.000, 0.000, 0.000, -0.125, 0.125, -0.250, 0.250, 0.000, 0.000, 0.000, 0.125, 0.000, 0.000, 0.375, 0.000, 0.000, 0.125, -0.125, 0.125, 0.000, 0.000, 0.250, 0.125, 0.125, 0.000, 0.125, 0.000, 0.125, 0.125, -0.375, 0.000, 0.000, 0.000, 0.000, 0.000, -0.125, 0.000, 0.000, 0.000, 0.125, 0.000, -0.250, 0.000, 0.000, 0.000, 0.250, 0.125, -0.125, 0.000, 0.125, -0.125, 0.000, -0.125, 0.000, -0.125, 0.000, 0.125, 0.250, 0.000, 0.125, 0.000, 0.125, -0.250, -0.125, 0.000, 0.125, 0.250, -0.125, 0.375, -0.125, 0.125, 0.000, 0.125, 0.250, 0.000, -0.125, 0.250, 0.000, 0.125, -0.125, -0.250, 0.125, -0.125, 0.125, 0.000, -0.125, 0.000, -0.125, 0.000, -0.125, -0.125, 0.000, -0.250, 0.125, 0.000, 0.125, 0.125, -0.125, -0.125, 0.125, -0.125, 0.000, 0.000, 0.000, 0.125, 0.125, 0.000, 0.000, -0.125, -0.125, 0.000, 0.000, 0.000, 0.000, 0.125, -0.125, 0.000, -0.250, 0.125, 0.250, 0.000, 0.000, 0.000, 0.000, 0.000, -0.125, 0.125, 0.125, 0.000, -0.250, 0.125, 0.000, -0.125, 0.125, 0.125, -0.125, 0.125, -0.125, 0.000, 0.125, -0.250, 0.125, -0.250, 0.125, 0.250, -0.125, 0.250, -0.250, 0.250, -0.375, -0.250, 0.250, -0.250, 0.250, 0.125, -0.125, 0.000, -0.250, 0.250, 0.125, -0.125, 0.250, -0.125, 0.000, 0.250, 0.000, -0.125, 0.125, 0.125, -0.125, 0.000, 0.125, -0.125, -0.125, 0.125, -0.125, 0.000, 0.125, 0.125, -0.125, 0.000, 0.125, 0.125, 0.000, 0.125, 0.000, 0.125, 0.125, 0.000, -0.250, -0.125, 0.000, 0.125, 0.250, 0.125, -0.125, 0.000, 0.000, 0.125, -0.125, -0.125, 0.125, 0.000, 0.125, 0.250, -0.125, 0.375, -0.250, 0.250, -0.250, -0.125, 0.250, -0.250, 0.250, -0.375, 0.250, -0.250, 0.375, -0.375, 0.500, 0.375, -0.125, 0.625, -0.375, 0.125, 0.000, 0.125, -0.375, 0.125, -0.125, -0.125, 0.375, -0.125, 0.375, 0.125, -0.250, 0.000, 0.125, 0.125, -0.125, -0.250, 0.000, 0.000, 0.375, 0.000, 0.000, 0.000, -0.125, 0.125, 0.000, 0.000, 0.125, -0.375, 0.000, -0.125, -0.125, 0.000, 0.125, 0.000, -0.250, 0.125, 0.125, 0.000, 0.000, 0.125, 0.000, 0.125, -0.125, 0.125, 0.000, -0.125, -0.125, 0.125, 0.000, 0.250, -0.125, 0.125, -0.125, 0.250, 0.000, -0.125, 0.000, 0.000, 0.000, 0.250, -0.250, 0.125, -0.125, 0.250, -0.250, -0.125, 0.375, 0.000, 0.500, 0.250, -0.125, 0.000, -0.125, 0.125, -0.250, -0.250, 0.125, 0.000, 0.000, 0.000, 0.125, 0.000, -0.125, 0.000, 0.125, 0.000, -0.125, -0.125, 0.125, -0.125, 0.000, 0.000, -0.125, 0.000, -0.375, 0.000, 0.125, 0.000, 0.000, 0.000, 0.000, 0.000, 0.000, 0.000, 0.000, -0.250, 0.125, 0.125, 0.000, 0.000, 0.125, 0.125, -0.125, 0.000, 0.125, 0.000, -0.125, -0.125, 0.000, 0.125, -0.125, 0.000, 0.125, 0.125, -0.125, 0.000, 0.125, 0.000, 0.000, 0.250, 0.000, 0.375, -0.125, -0.125, 0.125, 0.000, 0.125, -0.250, 0.000, 0.250, 0.000, 0.125, 0.000, 0.000, 0.000, -0.125, 0.125, 0.000, -0.125, -0.125, 0.000, 0.125, 0.125, 0.125, -0.125, 0.125, -0.125, 0.000, 0.000, -0.125, 0.125, -0.125, -0.125, 0.000, 0.000, 0.000, -0.125, -0.250, 0.000, 0.000, 0.125, -0.125, 0.000, 0.000, 0.125, 0.000, 0.125, -0.250, -0.125, 0.000, 0.000, -0.125, 0.000, 0.125, 0.125, 0.125, 0.000, -0.125, 0.125, 0.000, 0.000, 0.250, 0.000, 0.000, 0.125, 0.000, 0.125, -0.125, 0.125, 0.000, 0.125, 0.000, 0.000, 0.125, -0.250, 0.000, 0.250, -0.125, 0.250, 0.250, 0.125, 0.125, -0.125, -0.250, 0.000, 0.000, 0.125, 0.000, 0.000, -0.125, 0.000, -0.125, -0.125, 0.250, -0.125, 0.000, 0.125, 0.125, 0.250, 0.125, -0.125, 0.250, 0.125, -0.125, 0.125, 0.000, -0.125, 0.000, -0.125, 0.000, -0.125, -0.125, 0.125, -0.125, 0.125, 0.000, -0.125, -0.250, -0.125, 0.000, 0.125, 0.000, 0.000, -0.125, -0.125, 0.000, 0.000, 0.000, 0.000, 0.000, 0.000, 0.125, 0.125, 0.000, 0.000, 0.125, 0.000, 0.000, 0.125, 0.125, 0.125, -0.125, 0.000, 0.000, -0.125, -0.125, -0.125, -0.125, 0.000, -0.125, -0.125, 0.000, 0.000, 0.000, -0.125, 0.000, -0.125, -0.250, 0.000, -0.125, 0.000, -0.125, 0.125, 0.000, -0.250, 0.000, 0.125, 0.000, 0.000, 0.000, 0.125, 0.000, 0.000, 0.000, 0.000, -0.125, 0.000, 0.125, 0.000, 0.125, -0.125, -0.125, 0.000, 0.125, 0.000, 0.000, 0.000, 0.125, 0.125, 0.000, 0.000, 0.000, 0.000, 0.125, 0.125, 0.000, 0.125, 0.000, 0.000, 0.125, 0.000, 0.125, -0.125, -0.125, 0.000, -0.125, 0.125, 0.125, 0.125, 0.000, 0.125, -0.125, -0.125, 0.000, -0.125, -0.125, 0.000, 0.125, 0.000, 0.000, 0.000, 0.000, 0.125, 0.125, 0.000, 0.000, 0.125, 0.000, 0.000, 0.000, 0.000, 0.000, 0.125, 0.000, 0.250, 0.000, 0.000, -0.125, 0.125, -0.125, 0.000, 0.250, -0.125, -0.125, -0.125, 0.000, 0.000, 0.125, 0.000, 0.000, -0.125, 0.125, 0.000, 0.000, 0.000, 0.000, -0.125, 0.000, 0.125, -0.125, 0.000, 0.000, -0.125, 0.000, -0.125, -0.125, 0.125, 0.000, -0.125, 0.000, 0.000, 0.000, 0.250, 0.000, 0.125, -0.125, 0.000, -0.250, -0.125, 0.000, 0.375, -0.125, 0.125, 0.000, -0.125, -0.250, 0.000, -0.250, -0.125, 0.000, 0.125, 0.250, 0.125, 0.000, -0.125, -0.125, -0.125, 0.000, 0.000, 0.000, -0.125, 0.000, 0.125, 0.125, 0.000, -0.125, 0.125, 0.125, 0.000, 0.000, 0.000, 0.000, 0.000, 0.125, -0.125, 0.125, -0.125, -0.125, 0.000, 0.000, 0.125, 0.125, 0.125, 0.125, -0.125, 0.000, 0.000, -0.125, 0.125, 0.000, 0.125, -0.125, -0.125, 0.000, -0.125, -0.125, 0.125, -0.125, 0.000, 0.000, 0.125, -0.125, 0.250, 0.125, -0.250, -0.125, 0.000, 0.000, 0.000, 0.125, -0.625, 0.125, -0.250, 0.125, 0.500, 0.750, 0.125, 0.500, 0.125, 0.000, 0.250, 0.125, -0.125, -0.125, 0.000, -0.250, 0.000, -0.125, 0.000, 0.000, 0.000, 0.000, 0.000, 0.000, -0.125, 0.000, 0.000, -0.125, 0.000, 0.125, 0.125, 0.000, 0.125, 0.125, 0.125, 0.000, -0.125, 0.000, 0.000, 0.125, 0.125, 0.000, -0.125, 0.125, 0.125, 0.000, -0.125, 0.000, 0.000, -0.125, 0.125, 0.125, -0.250, -0.125, -0.125, 0.000, 0.125, 0.000, 0.000, 0.000, 0.000, 0.000, 0.375, 0.000, 0.000, -0.125, -0.125, 0.000, 0.000, 0.125, 0.125, 0.000, 0.250, 0.125, -0.250, 0.000, -0.250, -0.125, -0.125, -0.125, 0.125, -0.125, 0.000, 0.000, -0.250, -0.250, 0.000, 0.125, 0.000, 0.000, 0.125, 0.000, 0.000, 0.000, 0.000, -0.125, 0.125, 0.125, 0.000, -0.125, 0.000, 0.000, 0.000, -0.125, -0.125, 0.000, 0.000, 0.000, 0.000, 0.000, 0.000, 0.000, 0.000, 0.125, 0.000, 0.250, 0.000, -0.125, 0.000, 0.000, -0.125, 0.000, -0.250, 0.000, 0.125, -0.125, 0.250, 0.000, 0.000, 0.000, 0.000, 0.125, 0.125, 0.000, -0.125, 0.125, 0.000, 0.000, 0.000, 0.000, 0.125, -0.125, -0.250, 0.125, 0.125, -0.125, 0.125, -0.125, -0.125, 0.000, 0.000, 0.000, 0.000, 0.000, 0.125, -0.250, 0.000, -0.125, 0.000, 0.000, 0.125, 0.125, 0.125, 0.000, 0.125, 0.125, 0.125, -0.125, 0.000, 0.125, -0.125, -0.125, 0.250, 0.125, -0.125, 0.000, 0.000, 0.125, 0.000, -0.125, 0.000, 0.125, -0.125, 0.000, 0.000, -0.125, 0.125, 0.125, 0.125, 0.125, 0.000, 0.000, 0.250, 0.125, -0.125, 0.125, -0.125, -0.125, 0.000, -0.125, 0.000, -0.125, 0.000, 0.000, 0.000, -0.125, 0.125, 0.000, 0.125, 0.000, 0.125, 0.125, 0.125, 0.125, -0.125, 0.000, -0.125, 0.000, 0.000, -0.125, 0.000, 0.125, 0.000, 0.000, -0.125, 0.125, 0.000, 0.000, 0.125, 0.000, 0.125, 0.125, 0.125, 0.125, 0.125, -0.125, 0.000, 0.125, 0.125, -0.125, 0.000, -0.125, -0.125, 0.000, -0.125, 0.000, 0.125, -0.125, 0.000};
#endif

#endif
